{"weights": [[[2.361691621856637, 0.6951131841402826, -0.08284700929785545, -0.20505131353430686, 0.041577017671841285, -0.9912386611207121, 1.0287765735352175, -1.4519937177167415, -1.3390201431391555, 1.3030809103735397, 0.5017035427937298, 0.04052203243820506, -0.5109071556863434, 0.8389858649458336, 2.405066072962217, -0.5470207501173078, -0.9778807861686928, -0.38700945494478184, -0.46701127480162735, 1.3777591509445897, 0.6807346308163028, -2.691792701720477, 0.42565455168775984, -1.005448153684112, 1.1846578239871046, -0.016102564201510496, -1.2264010234099036, -0.9749949295137267, 0.2567244258959799, -0.21751988658410296, -1.7411125701016237, 1.8607626009439153, 0.15393173824358938, 0.7660754154232816, -1.6061265841458716, 0.9667327823661178, -0.7298411295954906, -0.4488768024041217, -1.1571962349784384, -1.1223427580200913, 0.8558394978383305, -1.0284702769322756, -0.9377321943621018, -0.3454962126652355, 0.12505730990242392, -0.010114862916194947, 1.7341983323958956, -0.17863936434889793, 1.0509252683724528, -0.509043215803435, -0.23251605091283212, 0.7148499676984786, 0.47938443603629494, -2.3747287468615705, 0.8908583838204523, 0.25688209496045755, 1.647426783459943]], [[0.7455609300002949]], [[-0.09615942436280961]], [[-0.09232590953846152]], [[-0.9505625553339975]], [[-0.7253383214751777]], [[0.1925141912765063]], [[0.11572885527125783]], [[0.6050616502181678]], [[0.7330561071664411]], [[-0.10585820531116868]], [[0.7268965520506859]], [[1.7200550659863063]], [[0.8534356800088228]], [[0.42504467325493006]], [[0.16391877154865098]], [[-0.1513705570010128]], [[-0.604909493939237]], [[-0.42128686188875425]], [[0.13298472775535988]], [[-0.25252589621894084]], [[-0.05256178594787984]], [[0.11000828497274429]], [[-0.004963269182716539]], [[-0.5232597481509885]], [[-0.523915166464859]], [[0.12838461715312216]], [[0.5645526802852086]], [[0.3079329690155365]], [[-1.06085519442226]], [[0.23423879366794906]]], "biases": [[[0.9086784633216608]], [[2.8717161743399435]], [[-1.481514062049891]], [[0.6428637081676962]], [[-1.0744217374631952]], [[-1.6064652157165216]], [[-0.7008574981516977]], [[0.9160979506318385]], [[-0.9702238114095295]], [[0.9550356499507514]], [[-1.793052517504949]], [[1.3560840287191966]], [[0.9789906320350503]], [[0.24193444594442762]], [[-0.5664687353844169]], [[-0.4186241507117724]], [[-0.2703499073104258]], [[0.11677461164641133]], [[-1.1708507786066826]], [[0.21510457835724658]], [[0.43212770405227596]], [[-1.682811695983492]], [[-0.1534980462996616]], [[0.3213345695827244]], [[0.28366781027903576]], [[1.8781408752730342]], [[0.2178719667375079]], [[1.4197151023466401]], [[1.6893248868590567]], [[1.501208886496]], [[-1.1666593567245243]]]}