{"weights": [[[-0.38681849793413225, 0.7005528151636707, -0.6008933105433821, -0.39919457403380115, -1.0082475937793738, 0.6613014289134366, -0.6447448801219314, 0.5105884454403744, 0.6770471386511769, 1.1696388818611938, -1.055901931123321, -0.7396233659982383, -0.1488973356060309, -0.9820736344290433, -1.4223415229883911, -0.9322084489885711, 1.4510105443837407, 0.4559704665372639, -0.07772390843601916, 1.7064130188192528, -0.042044640327444004, -0.28852015415449017, -0.02478951524110408, 0.6894319215776543, 0.5200590099912671, -0.1283502775640005, 1.1642016597816292, 1.3093887828114947, -0.9567998568199306, -0.9569465633877973, -0.35055499379642463, 0.7667499827958277, 0.7297216372430073, 2.8612679163912564, -0.755298672360132, 2.1765425499526634, -1.8528458110000665, 1.143725884422658, 0.014817697175649422, -0.908295853457563, 1.595234847546261, 0.2718013142636127, 1.2792854984648672, -1.455012384028949, 1.0751838541411565, -0.2509208797093552, -0.6887107128350873, 0.4429974708410119, -1.6635297982891526, -0.14344233962124425, -1.1946003963672553, 0.8218412327874783, 0.10185548920854934, -0.5473726830440373, -0.6659330605784063, 0.39063380181765145, -0.2582833402687202]], [[-0.6611082758158102]], [[0.1473216182364906]], [[0.28845082496151636]], [[0.8128033270820885]], [[0.3903856519594343]], [[0.19373471206471393]], [[-0.21952518505215776]], [[0.34473977071250317]], [[-0.4270382518311251]], [[0.5813710858251042]], [[0.4207964442388676]], [[-1.5171157142209764]], [[-0.05272109044549325]], [[-2.3683141395680756]], [[0.2703220917406059]], [[0.7649198068600657]], [[0.9877524662267407]], [[-0.11987319835289974]], [[1.6971226070713654]], [[-0.19701559655527706]]], "biases": [[[0.809521116438802]], [[-0.44701465582469924]], [[0.3977531017852496]], [[0.727204855716105]], [[0.7005230123132273]], [[0.9499940795183108]], [[0.13311270728043767]], [[0.586960055005984]], [[1.4765859624669053]], [[-0.9488118315476001]], [[-0.7366466341759849]], [[0.27282884879769614]], [[1.0350603323817813]], [[1.9558040737231075]], [[0.08117602085049153]], [[0.6654298278914592]], [[0.7594818064305863]], [[-1.356187160090805]], [[-0.1880382951859815]], [[-2.062263457797054]], [[0.7960986182655221]]]}