{"weights": [[[0.6389267116656341, -0.0425405526081154, 1.57959289781787, 0.2032303700708494, 2.1102997843131397, 1.3563628623901025, 0.3241432237870369, 0.10653714895842037, 0.8067504017789191, 0.37989188731341783, 1.1343767234405555, 1.2785149871112136, 1.0492196133464227, -0.4527562441239705, 0.44773027357736245, 2.419927988371214, -0.09861349093024592, 0.8354872774020882, -0.08629971496762785, 0.6521617314481181, -0.1299604471168832, 1.4504087990136563, -0.31724492751964206, -0.7329859868566048, 1.4423959557086599, 0.26316285170126763, -1.0420190818219373, 0.11909939886196132, -0.8877392733814743, -0.3183772399049112, 1.4691005137127222, 1.3045591722844792, 1.7910217171519005, -0.4728657079404143, 0.766315091202675, -0.2071877474136569, -0.2267354426374265, 1.5976947815763942, 2.0958411101930783, -0.7088084826803458, -0.8977467811129818, 0.7735164379124735, 0.320035052569305, -0.7576610909388416, 2.17022713377158, -0.6911114862793134, 1.5473287839961165, 0.29238521538927986, -0.43807900239670994, -0.3581883908461438, -0.4231771259638094, -0.7893735890849215, 0.44563426985774096, 0.7071377539530199, 0.1919304928714531, -0.5224438791175465, -0.9387020992302504]], [[-0.07335380071021075]]], "biases": [[[0.9568739675348475]], [[-1.025214726691016]]]}