{"weights": [[[-0.36040124287744796, -0.08629173812471343, 1.3444612508067688, 1.8733394868852375, 1.356577488151974, 0.6917615700777825, 1.075067493887989, -1.299431052352795, -0.23926021910163567, -0.42609096317161604, -0.10092064988620553, 0.35192169371978094, -0.6595420567891426, -1.1616379066328677, -0.5314260734856654, 0.5586440823048255, 0.43655497390742953, -0.9071218577768402, 0.9911748798749231, 0.7099043348560845, -0.8404305305085226, 1.9717877842475942, 0.30610631979530956, -0.32934623326062007, -0.8039327556487402, 1.0989799075748519, 0.25145514434069066, -0.7488787615693259, -0.5058607828745892, -0.07682709092277634, 0.4999622025729044, 0.672689003657386, 0.10561587014593495, -0.17803313642010443, -0.573490210182532, -0.7009831861480027, -0.6712032036771464, 1.0105248895369092, 1.0300575224587876, -0.4696833811905537, 1.601473967947569, 0.11549764513704415, -0.5526532451358552, -0.7135062696643891, 2.0887562689995596, 0.5010007563633458, 1.6044428900942478, -0.09555381741550839, 0.06413693475961478, -1.0313654736958016, -0.6988147589852755, -0.2669498046763141, 1.1683462483344549, -0.4514978007961846, -1.1397701811338772, 0.255389528827573, 1.0833189558022793]], [[1.9900354335156507]], [[1.5378794955788009]], [[0.7617533600325542]], [[-0.6628897983277175]], [[1.1286748746672852]], [[1.1831650724017495]], [[-0.020227266684557814]], [[-0.1385354934384211]], [[-0.16642275366729833]], [[0.9281133635076299]], [[-0.26676622316205373]], [[0.9222134388152047]], [[-0.6755858868258746]], [[0.3509103418593575]], [[-0.7354164484709584]], [[-1.3400536027728682]], [[0.825833734811637]], [[-1.2779219865553673]], [[1.2645045964753874]], [[0.7387617475694904]], [[0.38566673031299037]], [[1.322247733256791]], [[-0.9099719106894298]], [[-1.2017460081907148]], [[2.057705384777773]], [[1.3001882945128513]], [[1.7335283871081748]], [[1.0541854175892182]], [[1.9732193410507686]], [[-0.9312237458210447]], [[1.1925293405050166]], [[-0.7542820552207319]], [[0.7605139098590045]], [[-1.6919954194475049]], [[-0.9468229726018944]], [[-0.6919056072157707]], [[0.9218953607218601]], [[-0.9973406489328782]], [[0.6712656997047859]], [[0.7797855620005373]], [[0.10842087979099402]], [[-0.49525599755959715]], [[1.128060815928476]], [[0.171112193454817]], [[-2.0438908695198137]], [[-1.4320509551663578]], [[-0.5544975472398931]], [[1.0071506412090232]], [[-0.9927405094935902]], [[0.8664585016417151]]], "biases": [[[-0.7912643944262515]], [[1.3087988414423988]], [[-0.412845413987869]], [[-1.8953544831749911]], [[0.1570942484882905]], [[0.667345152835009]], [[0.7431395292005422]], [[-0.4994133783415967]], [[1.0925837527155138]], [[-0.42679797912278516]], [[0.6210890217100057]], [[0.23477022307675716]], [[0.029784656408269793]], [[0.5019769566354327]], [[1.5965884912213957]], [[0.6946204952090147]], [[-0.4832718362355949]], [[0.7202298114456821]], [[0.9088172766018979]], [[-0.17262181585559827]], [[-0.21170219957762607]], [[0.5355165331082054]], [[-0.1449091364968735]], [[1.3246277900987276]], [[0.5537440330183867]], [[0.19212463355771495]], [[-0.7197843467363914]], [[-1.0087225565762565]], [[1.017936799853351]], [[-0.7916236097251748]], [[0.2903345776499535]], [[0.9989097985286048]], [[-0.5246642799261179]], [[-0.18874344923556932]], [[-0.5293160564463723]], [[-1.9994885442666404]], [[-0.2784321429311291]], [[1.2335343891903114]], [[1.8586048733092126]], [[-2.1347645745701156]], [[-1.3005194044347705]], [[3.195011837140359]], [[-1.6199258063131239]], [[-0.8621474533439744]], [[1.0722525973451524]], [[-0.44238601371492076]], [[-0.9343526072490541]], [[0.5581880712347977]], [[-0.5194671987220679]], [[0.09404219668888797]], [[-0.8424021016202927]]]}