{"weights": [[[-0.13564771497123498, -0.8442262745681752, -0.07514248772092368, -0.07684098517966785, -1.0097626549124215, -1.1021590030475643, 0.041839052043027423, -0.8986889016829139, -0.07999477930370283, 1.6629878672620082, 0.34016877138492624, -0.2309024013280518, -0.47763270579529105, 1.0466054297257439, -0.8014933353076809, -0.909915483036182, -2.407733087960489, -0.36564917078816406, 0.47764874783657996, -0.8658605892139913, -0.12025599929878185, 2.234415819885784, 0.16287449619031374, -0.059861479875616304, 0.06934842451697586, 0.03999131475989907, 0.5048974715638495, 0.3361762713141819, -1.2347947973907702, 0.6386945515258512, -0.42322329597117686, -1.5127623573214255, 2.6716031470540518, 0.6821187282475873, -0.5217603329612748, 0.3658437513597876, 0.591067854074941, 0.5215237447519017, -0.978266813135496, -1.1085627520036385, -0.866350571718821, -1.065145442359219, -0.6173805615542357, -0.548877826115444, -1.248953902779501, -1.9577089093959852, -0.22854592877062224, -0.7547627095910864, 0.08150673746400738, -0.0474366702131125, -0.21624306775157898, 0.03120355791054842, 0.4053366145381072, 0.612642732971301, 0.27399254119419914, 0.5223558857693114, 0.15444336864785155]], [[0.025393740411748102]], [[0.7374323640853362]], [[-1.0045098715279914]], [[0.561420308875309]], [[0.06157885888980247]], [[-1.3586480563776884]], [[1.5226087563171986]], [[0.1434593426669166]], [[1.1954078230954053]], [[-1.3081799448349007]], [[-0.6153905189557084]], [[-0.45543857344746785]], [[0.6485683111565158]], [[-0.41164038922451174]], [[0.652305162422005]], [[-0.4759633159263071]], [[1.2355229052413332]], [[-0.4652504571169416]], [[-0.28309631134212165]], [[-2.153283580993078]], [[-1.5741345620521494]], [[0.6999918297183545]], [[-0.2572205267202346]], [[-0.8678499978207678]], [[1.2980020792569598]], [[-0.16957810662137723]], [[0.32090893500932693]], [[-1.3725646348201976]], [[-0.43309796925438626]], [[2.5922226603358904]], [[0.9142003070284673]], [[-0.9363499867937408]], [[1.2612432651990209]], [[1.450348134100408]], [[-0.14708384565602656]], [[0.8313020020280152]], [[-0.03192854933949628]], [[0.5565287349894289]], [[0.4831918374135131]], [[-1.1096121287773912]]], "biases": [[[0.4942142807910778]], [[0.5733133324450871]], [[0.07722842032671368]], [[1.9426506222147866]], [[-1.0487538251769994]], [[1.071642891868404]], [[0.86977078026819]], [[-2.318124510549913]], [[1.2833043240423043]], [[-1.8841755602018018]], [[2.3737047519167653]], [[-0.6539119540536866]], [[-0.6026313065121932]], [[1.4694554441990313]], [[0.11252652277159236]], [[-1.1405245167980715]], [[-0.08367765872285073]], [[0.08920581946623642]], [[1.0698533542782693]], [[-0.058514509783128124]], [[0.25566933123829144]], [[-0.8515478999964952]], [[-0.2954823709151718]], [[-0.020082920163554768]], [[-0.6908185869430975]], [[-0.06846922592586803]], [[0.2831198955321061]], [[0.7915266347961852]], [[1.0676873565684173]], [[-1.2774768755884507]], [[-0.7577754620329215]], [[-0.2650063750052446]], [[-0.5197035555225223]], [[-1.7535794860413332]], [[0.9567084698030403]], [[-0.14911659304373015]], [[-1.0418607760760685]], [[0.07779449259179626]], [[-1.9788111459984787]], [[1.250033287101618]], [[-2.262148016292218]]]}