{"weights": [[[0.8618929072288604, -0.15526421655406977, 0.6254085562706765, -1.32079534294516, -0.1793205274668628, 0.7996917106050939, -0.017481007830060055, 0.0877633341200926, -0.08908824006296041, 2.1361296260533726, 0.17367126868377944, -0.8873569301340546, -1.470591680831606, 0.880446398113379, 0.2822065158003833, -0.00044791910859354005, 0.07745885368607983, -0.8694128079047962, -0.444909868553699, -2.8702357570471686, -0.6561512021640751, 0.31022293420829766, -1.3698649532214462, -1.163176762293678, -0.036559091012520195, 1.1083442342448089, -1.1494697065169177, -1.2009513890551122, 0.03205745865411289, 0.9013162869341941, -1.4909161834396625, -1.180645940814718, -1.1375710185312484, 0.3499914675119269, 0.9377233396690421, -0.39353829914006233, -0.6534607475398652, -1.3665077299561244, -0.9247390736279887, -1.3007396361697026, -0.43928791135641604, -1.2600474350104496, -1.5498911734724852, 0.6432831983744827, -0.8251105110873452, -2.514826805623697, -0.9492419032453738, 0.1977863952724465, -0.15097734857142892, -1.7027350464902073, -0.6523401459287621, -0.3679045804210319, 1.7056521486525964, 0.180940434412632, -0.1252094853389931, -1.1436230825940594, 0.05822424934118605]], [[0.11438956844594086]], [[0.05369259030594414]], [[0.5118355207551634]], [[-0.2099216211462747]], [[0.8691402009081818]], [[-1.3432377861384182]], [[-0.7292286121379364]], [[-0.23340144075620178]], [[0.5968249577983155]], [[1.1143357257522202]], [[-0.35209198494947636]], [[0.4416985782922691]], [[-0.4789965041030584]], [[1.0472752246173491]], [[0.3566554342001331]], [[0.0840455851291466]], [[2.688958600554047]], [[1.7438884089067934]], [[-1.5800928077810708]], [[-0.9335568207954783]], [[0.3888414654311885]], [[1.0023138863026806]], [[-0.480981554485419]], [[0.6724118513470714]], [[1.0922572094330527]], [[-0.1466523007772263]], [[0.6349408911912212]], [[-0.3414021945707698]], [[-0.14767665421072657]], [[0.9136356759098685]], [[-0.07011028056769046]], [[0.12495636286320541]], [[-0.8732323385029409]], [[-1.2207988118925575]], [[-0.29335680522309887]], [[-0.17145383423456334]], [[0.5514196709166733]], [[0.5093776976190979]], [[1.9495800150678821]], [[-1.732523737798622]], [[-0.1540638746341808]], [[-0.7322608548116051]], [[-0.6588433403961642]], [[-1.9520595348857404]], [[-1.0693638059188706]], [[2.47460495780218]], [[0.7418446379330733]], [[-0.430944313468087]], [[0.1877300181267335]], [[1.6313697837961558]], [[-1.0244750297839882]], [[1.1434106267181752]], [[0.6240273136471599]], [[0.9149602447420431]], [[-0.029485659767689684]], [[1.6215523443476583]], [[0.22824466463348328]], [[0.77405895333709]], [[0.5001596618877511]], [[0.17085397498989846]], [[0.18878043807340458]], [[-1.292923481553003]], [[-0.9432679062220312]], [[0.9750033391259554]], [[1.6129661189409565]], [[-0.7356164517603198]], [[-0.08393451271027484]], [[0.35924907445717175]], [[-1.654086014595769]], [[1.1700838602476902]]], "biases": [[[-0.6458094613306894]], [[-1.4230996071209996]], [[-0.39311078376671876]], [[0.8840575848630849]], [[0.9637469591577444]], [[1.2591773742396348]], [[-0.3603408738095674]], [[-0.5980883450711729]], [[-0.3757373086432111]], [[0.3093730403961446]], [[0.6834869020355885]], [[0.8102854130538869]], [[-1.0051539649488328]], [[-0.6398097398833963]], [[0.038010720711365374]], [[-0.7229568953317589]], [[-0.33896666130782094]], [[0.7460882967691408]], [[1.2463331542418103]], [[-0.9960416425441433]], [[-0.40835957235898374]], [[-0.30451601094380776]], [[0.4469518043078277]], [[0.6230367748171242]], [[0.8149999651847967]], [[-0.37900052238931475]], [[-0.602543266739243]], [[-0.45836547548426365]], [[0.8827820134658287]], [[-0.20483563708235633]], [[1.1527707902422344]], [[0.3530051834633205]], [[2.5779039753775836]], [[1.0608926680713169]], [[0.5128082260180804]], [[0.2609954409780976]], [[1.3322669475501117]], [[0.46223506883655724]], [[0.09558377631131548]], [[0.05026224816420926]], [[1.3379342646354884]], [[-0.41050281593148225]], [[-1.1574809530214665]], [[-1.3904898583134813]], [[-0.3810948983999507]], [[-0.2545236326727416]], [[3.1976130943314924]], [[1.6955124692338082]], [[0.860356257961948]], [[0.08315094956148568]], [[-1.651400286097345]], [[-0.09981135541242682]], [[0.5984660083820872]], [[-1.9351653328473277]], [[1.4018346346209978]], [[-0.749634059254607]], [[-0.9810410643958118]], [[-1.854719235672387]], [[-0.14801266665578516]], [[0.0479133988195283]], [[1.3330524769905436]], [[-1.9484425153733858]], [[-0.9774441989962741]], [[1.3550850743844078]], [[0.03914103176288815]], [[0.10610132072618456]], [[-0.06781155137866]], [[0.18370563858746725]], [[1.399941245884133]], [[0.25604199680144124]], [[1.9566094251034463]]]}