{"weights": [[[-1.1678569674855601, 0.6613340622207946, -0.7118593563661619, -1.3888900346414612, -0.8343134487553017, 1.0821240343985667, 0.4772605554947106, 0.025386465263521667, -0.7831554711653675, -2.1901818088907774, -0.22601201981278346, -0.3469930863474113, 0.9563623629143708, 1.7811218981613088, -0.4726276191693965, 0.3021521203725592, 0.9069782606772069, -0.5965883270815939, 0.7940647484526953, -1.2925978207230475, 0.8436830565279051, -0.6232848957208692, -0.8225362072483006, -0.8629057053977042, -0.9648398384728163, -0.46547507664102733, -0.43984807503270285, 0.11291879773477793, -0.7615909134072563, 0.22642528484731914, 0.16088241901561018, -1.0000935674519664, -1.667505257071367, -0.023110052080172232, 2.746558257125804, -2.352209119244931, -1.5957373907121573, -0.1972752371864216, 1.8878285381480149, 0.3659638533215259, -0.25410639835821924, 0.9504060308875221, -0.7666932814397678, 1.4703480500742063, 0.15558284176191672, 0.2949480949087575, -0.3090980390652349, 0.12102149295595649, 0.8991404758117822, 0.30382590514505564, 0.047618296243232806, 0.16777820507590518, 0.29398751397516804, -0.7520218398366043, -0.602731996130006, -1.1216065107179225, 0.8572260057458089]], [[-0.07811831991860507]], [[0.4533042878516495]], [[-0.8901028931026652]], [[-0.36815447003315865]], [[-1.3421675978058962]], [[-0.20362597388206158]], [[0.7767046220575632]], [[1.8895722399674602]], [[-0.5092137091227106]], [[0.7404570636439248]], [[-0.8470737430684719]], [[-0.5197113053118234]], [[-0.040684790465524534]], [[0.043106298297230325]], [[-0.8657252087650765]], [[0.4785756734158874]], [[-0.4220484119863127]], [[-0.20710951634387154]], [[1.5742573812296905]], [[0.27700216376020814]], [[0.30551499339086285]], [[-0.48485724223771637]], [[-0.6940990781922531]], [[-0.8633021518720726]], [[1.5251128969670484]], [[-0.9656887358242829]], [[-1.2066138593341496]], [[0.5069989951636851]], [[0.27023664193978214]], [[0.20990236077985283]], [[-0.7584272246592106]], [[-0.29148129367468784]], [[0.6470752761412671]], [[-0.3758143229584601]], [[-0.5922110105491486]], [[0.7942477367327647]], [[-1.110350819427004]], [[1.3576505854812826]], [[-2.1458930163487473]], [[0.33095189760740323]], [[0.5831529508241309]], [[0.13691914634159247]], [[-1.0287919744556273]], [[1.399393453159344]], [[0.09084578684359727]], [[0.5560937083298169]], [[0.12476375043919624]], [[0.5553305501561974]], [[1.2086609854167987]], [[0.30472098696875566]], [[1.1274251218680258]], [[0.34937481156708755]], [[-0.6228971569651648]], [[1.0719508632041166]], [[-1.1436515856203948]], [[0.05198687673157818]], [[1.6237205153053238]], [[0.598575828698643]], [[0.7416633797144128]], [[0.18267045593063558]]], "biases": [[[0.7878313156078952]], [[2.264613021231149]], [[2.1440886842049838]], [[-0.24844837665000308]], [[-0.4258996828188456]], [[0.2607205855478796]], [[-1.866227479681547]], [[0.01117723956485731]], [[1.2738369109937384]], [[0.2648551942564455]], [[-1.0561736493955993]], [[-2.9553486542214515]], [[-0.41895320208692116]], [[-0.7497496101842256]], [[0.33190979170584967]], [[-0.14416720669761415]], [[0.7892880069304523]], [[-0.6939883320010141]], [[0.2572762568638998]], [[-2.3069272480382086]], [[-1.275265205771527]], [[-1.994931081111287]], [[-1.475561907555683]], [[1.255195533079799]], [[0.42980235852295634]], [[0.4871375650704364]], [[-1.0044642742702738]], [[0.8188649552428541]], [[-0.9993606987435795]], [[0.482852031077197]], [[-0.49300969904039016]], [[0.6442423465652934]], [[-1.301900234432649]], [[-0.4261310338089712]], [[2.05721637960153]], [[0.700314703438967]], [[2.0774214829543167]], [[1.033081689159525]], [[-0.2244122642056526]], [[-0.9823146133337277]], [[-0.744739947881463]], [[-0.41985321391466124]], [[0.3036024478763321]], [[0.7042025751469382]], [[1.2739804405883233]], [[-0.43744442905737524]], [[-0.019907659210074417]], [[-0.4112148058650563]], [[0.4306375297882381]], [[0.876049246493648]], [[0.9464091137332546]], [[-0.9762586416755364]], [[-0.7860791769733169]], [[-0.4978260549714292]], [[1.0938568345649469]], [[0.6163016466722951]], [[-0.28944518332354885]], [[1.2223339405716838]], [[0.5606786190010311]], [[1.3722797832803986]], [[-2.094988926355069]]]}