{"weights": [[[-0.23295119706966758, 0.5338982879684597, -0.06637282218385562, 0.5528295715363458, -1.5779863857866585, -0.6852358250939181, -1.5276630514691183, -0.8850914874334683, -0.4613242107074644, 0.6950021717044665, -1.401262271606956, 0.10826885459417217, 0.4286171371737269, 0.46805887194523105, 0.8313079000670096, 0.20754707538536502, 0.01033162167553397, 1.5119991035712257, 2.035772380488844, 1.281638952189644, -0.6559459209152788, -0.7905749774374236, -0.017866901214758514, -0.408793473780733, 0.4298062834207179, 0.07542525566998044, 0.7918604209892808, 0.008419860680572948, 0.7948003164268018, 0.018370371565345097, 1.9811205516984758, 1.6163695027862868, 0.7260585167208742, 0.7946306055585851, 1.709026787152649, 0.9719296159665398, 0.9492805094458829, 0.8718184053231329, -0.38513838711802906, 0.3736083505387496, 0.8251092018018722, 1.3644721706026248, 1.5008926800463425, -0.09938827680229172, 0.1900231306489574, -1.2495966364509092, -0.883111869326095, -1.0515464615657917, 1.1003205711074926, -0.15627470816393688, -1.2952084215294566, -0.22663257683803897, 0.656156627007984, 0.8237684513192671, 0.41928344952881247, -0.08122667836852941, 0.31144960034157454]], [[-0.5383391689217386]], [[0.1770191047424041]], [[-1.2697013033880358]], [[0.6028445777801272]], [[-1.0233319305447115]], [[-1.6033684018643823]], [[0.5791465672177032]], [[-0.52102227114521]], [[-1.093591453181306]], [[-0.876885300947285]]], "biases": [[[1.6639828358473665]], [[-0.4068341020000196]], [[-0.7687701109712937]], [[-0.21415784113322545]], [[1.3472678083474923]], [[0.6686430212226842]], [[-0.34028658683698604]], [[0.3802395019652245]], [[0.23825556852234256]], [[-0.8603991676247137]], [[-0.2825568635022701]]]}