{"weights": [[[-0.1958210102426795, -0.3925377460773304, 0.3216780501627887, 2.0138706862454594, -0.48134246582967294, -0.5095252215117256, -0.4076343312169411, -0.005181996221138772, -0.0906889827346158, -1.1719157198452563, -0.9708961085270845, 1.1555174228094605, -2.9860417122984892, 0.9216346082895214, 0.19143411334955102, -0.3248420028722935, -0.2174444913643918, 0.9228658646520911, 0.24760479997946092, 0.8794587027522558, -0.12251112745084071, -0.08054840553330714, -0.3275241680713155, -0.4385621817426884, 0.11299423722468216, -0.044285490723546476, 1.0889739961572142, -0.32966681432253325, -0.02995483107370923, -0.6405410062752103, 0.501158094389046, 2.221804055376516, -0.6434810851655686, 1.4722765515153695, -1.4885886586673778, -0.05223864441784638, 0.4578164611499311, -0.5210583386399639, -0.13704622880518622, -0.9832381159724081, 0.604366692399087, -0.7344941569842693, -1.3962168259597738, 0.29607940891689494, -0.6383897891414995, -0.6514185610142104, -0.24306529667138996, -0.35852877148224244, 0.23302370830473873, -1.0801171002004748, 1.0044575499883568, -0.21663216614660694, 1.2007930186948095, -1.319039688281747, -0.013939626693029084, 0.3806853307357794, -0.3755084518843757], [0.16751121121310913, -0.6067727974399636, -1.5261546025087456, -0.9985048103163595, -0.6869427500281928, 0.40929156255054816, 1.8814333740612916, 0.7259184810329701, 0.7798903480370362, 0.6492350140823149, 0.32508766739223877, 3.1647083418156834, 0.6702407775633129, -0.5025131486630113, 0.9036263954823135, -0.013399830837462972, -1.8052057714863945, -0.8845359918296853, 0.3764293619899213, 0.4890426600655096, 0.8610949534732316, 0.6246174428995489, 0.10930079561881226, -0.8255506953263085, -0.1236281254268678, 1.7353294013532958, -1.4165867912754126, 1.1254326104791694, -0.8836613412523251, 0.4280390552509093, 1.636840964983876, 1.3669442863637327, 1.357758440951375, 0.30135001872534506, 0.37498860178158616, 1.3330131740702833, 0.640912274388287, 0.4942701667917388, -0.003684732730989531, -0.5411691391900968, -0.39096406612123774, 0.7257082375107582, -0.6702685751386294, -1.131856900741102, -0.23401502497404364, 0.7809368515183346, -2.2654437804480234, -0.17253232062832288, 0.11036506071101661, -1.2963854118384954, 0.28149442989210094, -0.17227212157334573, -0.10218417488820938, 1.8401178569921839, 0.673096719622205, -0.8788313683597676, -1.375761050438848], [0.40938425358231756, 0.5885546868886233, 0.8283290256217661, -0.4246995513170677, -0.8731644908325903, 1.2221564781417802, 1.3336608706110833, 0.29673070140030283, -0.11147406941925143, 0.14529105434439724, 0.49212272113914046, -0.38768182123304956, 0.28994866976750305, 0.24341285179496525, -0.30580420930868674, -0.34306974194203715, 0.9684264720142913, 0.5667407143404543, 0.4833603595029712, 1.2507211886969392, -0.47790717486192524, 0.02129036145311499, -0.14148196522316273, 0.33493023608867517, 0.7662890226720789, -1.4350087188395546, 0.2816522110056862, -0.18012383509615645, 0.059135233497895935, 1.4532537793570093, -0.9611735399945257, 1.97464502973996, -0.9192486593759952, 1.2764431360943367, 0.17262330830497363, -0.16880600092429177, 0.3465355385231937, 0.18134026485048704, 0.3318487555558195, 0.010446915080136045, 0.2897767401204471, 1.1244012072300211, -1.4456327133200888, 0.46207581405964604, 1.035352885733768, 0.35446771447967257, 1.815049319842855, -0.5763770041252435, -1.2628318921596904, 0.35380288185817765, -1.5141686390042874, -0.5223809618159974, 1.162496271474808, 0.25914365425528296, -1.3332645168343618, -0.31685784240480797, 0.16838945455385118], [-0.27937014958199835, 0.10776487759095191, -1.036298265910484, 0.7383256114680278, 1.4433145365797708, -0.7073800805291504, -0.218457158724781, 0.2775061257165692, 0.8506772705132343, 0.6924146974799308, -1.6928130793985947, 0.2325475339602874, -0.19988078570601284, -0.8645269136079626, 0.17563834708686, -0.06255888556277955, 0.1134854142109646, -0.8715271325030121, 0.011813736275465359, -0.5132953274696164, -1.62625151499296, -0.7094935713210436, 0.21038407698522596, 0.677544531157435, -1.4696544808528966, 0.36849567976481457, -0.879241075366455, -1.0021337771664607, -0.5667822735950171, 0.04499357044824388, -0.502221053616653, 1.4309020936131736, -0.6490135073252781, 0.02381854857872492, 0.02204146378568543, -0.38966326593374234, 0.9450101374553334, -0.4062314457590987, 0.22344161186233608, -1.839168950805246, 0.19271112112596472, -1.012143812516474, -0.9277177910326311, 0.35314233740398554, 1.179528614530968, 2.834332021386403, -0.9846664504119476, 2.8270097766500175, 0.4789907392359382, 1.5241815729416617, -1.1575641161969346, -0.30464559431598076, -0.15252839009574187, -0.5458605434837761, 0.7877452672096099, -0.32154216103611566, 0.9905968010969883], [-0.2598050667503427, 0.6731613324140098, 2.2764070248786363, -0.19396923112893677, -1.6772086218000217, -0.874723900235582, 0.748023626132347, 0.9989971116946852, 0.9922306733926046, 0.3326823878804324, 0.4780410875265405, -1.7273320218801782, -2.131558721024713, -1.1147300298950027, 0.5594118195718738, 0.07405283777077008, -0.6443125692510139, 0.862487863061679, 0.4143609829809396, 0.2084790037800965, 1.775791182878406, -0.14027852603164587, -2.601956073317663, 0.3327689644071921, -1.2148985635672047, 0.15241368504350403, 0.608276724297352, -0.2643454289482538, -1.4907902953146015, 0.4049889025321564, 0.34182732223925644, 0.8222032867305104, 1.6559860857007214, -1.7648328121650962, -0.5924785170618296, -0.4769382810298964, 0.008541153896007634, -0.5606982153200094, 2.209992767823943, 1.3213512250394817, -1.2180855738664353, 1.4389064878018851, -0.16668627291816007, 0.37378975739592635, -0.5221008498044527, 0.276926521912325, 0.8742534397298046, -0.7438180798242684, -1.9674884591241868, 0.6663539907435061, -0.7253985268961312, -1.0807783318320423, -0.3425580537431099, 1.0136363117702383, -0.2771641974260017, 0.9879538816908835, -1.4184803657900815], [1.0124692535134174, 0.5814335129168626, 0.02386442670970863, -0.3835665160076635, 0.22054036299658034, 0.3517444621087135, 0.6867276845544968, -0.11942039080571176, -0.5894533012719769, -0.8741731487177662, 1.8389576897292357, -1.6002876902705345, 2.5043266950683294, -1.3509378547331932, 0.27016362599270244, -1.5306202301288265, -0.5511489146988847, 1.4385084302151088, -0.5266189029249122, -0.6579790007673008, -0.6156643589539954, -0.5313355747904057, -0.2118336024237674, -0.5271537782800461, -0.40438765139275534, -0.31192109815383223, 0.7878517202525099, 0.4049394043945411, 0.42057657070989657, -0.03852480634329876, 0.5929837822233369, 1.8551330679383446, 1.3983700432018047, 0.511429159290389, -0.4685583299840487, -1.5527236845075179, 1.2766981241211028, -0.07653332251060542, 1.5473303853018732, 0.23445337785290968, -0.020375412846214736, 0.6855681805109292, -0.17107782044945866, 0.8523578885862148, 0.2727159412667072, -0.5725953033340776, 0.7631163660232291, -0.7630475902387283, 0.8523818584562206, -0.133793998275716, -0.3126430714209488, -0.2870228357660828, -0.9456048157142303, -0.2230334635537002, 0.4984577518601891, 0.5001596859000191, -0.29678894202904943], [-0.1742802418917163, 0.16950702695313322, 1.9722611531551206, 0.22659216331028753, 1.4021556716378134, -0.6314044307397441, -0.32183829556597615, 1.6581482486195631, 0.34018739403951326, -0.20056356337123593, 2.1732620317394336, -0.13623789912349094, 0.19527866675694946, 2.5236650173610005, -1.07962326273211, 2.039655317682896, 0.6416949530848663, 1.8595668032412511, 0.27494593374436843, -2.175501977287145, 0.3670368894764191, -0.7866499728641876, 2.1368751252685674, -0.684384494624422, 1.2184436739612943, -0.043373803689969716, -1.583286060035256, -0.738374357905104, -2.5768786852730847, -1.0472607467412516, 0.9980496526549102, -1.3440702998260168, 1.7861508730231592, -0.046830810479724684, -0.4243331174698749, -0.4613549707059705, -0.5372227564523592, 0.9429245638820948, -1.1789238671393452, -0.8517985273141743, -0.5777239419494546, -0.7139912724124378, -0.18796949808698732, 1.1110095699810956, -2.224127853416271, 0.04454598988255244, -0.30412177634313825, 0.571543396246404, -0.5869680701605932, 0.9001706444203063, 0.32954143737678665, -0.821480234193675, 0.9318115106314488, -0.33066904624710874, 0.05967436269287314, 0.1913038415631208, -0.976227485483763], [-0.04442041038116286, -1.558702802571619, -0.368307597196857, 0.7790537657366232, -0.21695899813646607, 0.317910832279312, 0.6138866727348976, -0.36047504519490714, 0.12566251508882073, -1.0839099445237357, -0.07429581253564678, 0.3806943948732409, -2.8147356333344, 1.9348979924236895, -1.2685616011755592, -0.28267843073547844, -0.9871603605409989, -2.428071105272644, 0.04790919688971031, 1.5198813433170155, 1.1613777356582848, -0.1502807884779375, -1.6377107962578992, 1.1198376479133905, -0.7619526694946462, 0.5493540690624646, -1.0913163193941828, -1.1867958753573868, -0.36793719607915165, -1.0705977109011389, 2.4353564987775647, 0.8644315601054561, 0.6392567591441141, 1.0404222838492536, 0.2785964050846834, -0.8222422679961368, 0.09598897774597225, -0.10692710430244462, 1.1621974618991233, -1.2589183248629294, 1.7757531896839887, 0.24687309468927449, 1.8660244325254172, -0.5153691100859416, 0.20864593380256555, 0.31543498102903317, 0.9838187937793033, -1.1568604613392712, 1.8331827321197343, 1.5734097091218646, 0.3577921815646396, -1.5958649825046622, 1.4127075142071437, -0.9596834150806326, 0.37704532258063567, 0.21268497276747853, 0.07208392050527114], [0.35450240842485503, -1.7516774235189643, -0.5380790788867347, 0.05635935786806444, -0.8758363388511784, 0.3416712837028513, 0.8457065532824887, 1.5625335900491273, 0.25438799182358296, -1.3221480529708007, 0.27428243919160383, -0.7823948613341919, -1.0182536174008183, 1.2737972966460762, 0.6975164938185029, -0.03302508264227802, 0.6497759084052256, -0.10602429924070374, -1.2275399579075565, -0.7762978500160961, 0.09695015702450024, -1.171487212242986, 0.05178292071114122, 1.5618903220655753, 0.5728755664832494, -0.12919933912253675, 0.25285552132529376, -0.437008180614713, 1.1429638028512454, 1.1028360817199647, 0.43149353804559726, -0.7102844951327608, 0.3146123475504908, 0.6830483490459632, 0.787792284214266, 0.23151931333034695, -0.6121168456088167, -1.378166858704181, -0.8108948296048359, -0.8194139081855606, 0.103789073404944, 0.1503072819333438, 0.12448668031411442, -2.3801111997210773, 1.688500385407782, -0.3390949371963982, 0.019889773890526024, -1.665063075525419, 0.5210697382015317, -0.9136212480083397, 0.5395293061581158, -0.9913425907834669, -0.4739711325985307, -0.48220608102172113, 0.19876389070363623, -0.6601319468549468, -1.9012347679085542], [1.0164248198366577, 0.042390902436919016, 1.1962768381836424, -0.28238772068731904, -0.662953279682831, 0.9912284475461248, -0.7457557469207562, 0.033827629414829495, -0.5556056976277328, 1.7517653949060101, -1.1032178865085556, -0.3060297094725327, 0.7618207133758619, 0.1522229010219975, -1.082158530861471, 1.5512939410934383, -0.662596711704609, 1.8101955595267165, -0.6112407268519057, 0.12556351750028868, 0.16354713724623388, 0.9495196321334141, -0.44939145276855974, -0.6679057612623753, 0.7386788680024435, 0.7689071314563524, -1.3532651514725855, 0.007258667763451667, 0.423231544709596, 0.38838546961053433, -0.21681338809201287, 0.49047798972649664, -1.764810066527915, 0.5293320971375041, 1.896555480153826, 0.602540486142843, 0.2124206832257954, 1.7900091467956554, 0.0750628618162716, 0.5611459659307877, -1.404448533220559, 1.271960269771236, 0.2494839408606898, 2.3598884198665684, 0.2076298349114255, 2.3727027938343994, 0.756084671610825, -0.2952933866451179, 0.09292560732969488, 1.4018187356870766, 1.0537559383821373, 0.9261314118536484, 0.7719606566230164, 0.12279167653229434, -1.253012510976764, -1.0753192361658361, 1.2117477395178722]], [[-0.413168007544769, -0.4271811851208223, -0.23379748749976775, -0.3260069705083143, -0.7411043171190084, -0.5377525463712312, -0.25503415917725336, -2.00670504657043, -1.7518514113331458, -0.817411184296038]]], "biases": [[[-1.4097611013464058], [1.7890740791437512], [-0.6871004025515564], [-0.5732625505395085], [1.0740549442632528], [-1.4962640265980112], [0.9455850951170812], [-0.695088767913578], [-1.0300969150212789], [0.9927836910474914]], [[1.1613888264978096]]]}